{
  "activation_policy": {
    "max_calibration_ece": 0.1,
    "max_uncertainty": 0.5,
    "min_expected_utility": 0.0,
    "min_probability_positive": 0.5
  },
  "artifact_schema_version": "n1-compact-mlp-artifact-v1",
  "b1": [
    -0.36390021443367004,
    -0.17090266942977905,
    0.38855308294296265,
    0.24947592616081238,
    -0.18062889575958252,
    -0.4795551300048828,
    -0.13196825981140137,
    0.4299812912940979,
    0.48563167452812195,
    -0.44427385926246643,
    -0.25156378746032715,
    0.39315861463546753,
    0.07818027585744858,
    0.5037140846252441,
    0.4694932997226715,
    0.44429826736450195
  ],
  "b2": [
    0.011206815019249916,
    0.34761783480644226,
    0.23555335402488708,
    -0.08744743466377258,
    -0.20679348707199097,
    0.1768127977848053,
    0.2034231424331665,
    0.14548036456108093,
    0.4876483678817749,
    -0.28462767601013184,
    0.0854741781949997,
    -0.09032313525676727
  ],
  "calibration_ece": 0.15451364108400104,
  "catalog_version": "n1-family-catalog-v2",
  "family_catalog": [
    "HEUR",
    "DIA_ADV",
    "FAL_GUARD",
    "IND",
    "EML_SR",
    "PLAN",
    "OPT",
    "NESY",
    "EVO_SEARCH",
    "IMAGINATION",
    "A12"
  ],
  "feature_names": [
    "actuation_effect",
    "alarm_threshold",
    "distance_to_threshold",
    "external_input",
    "generator_grid",
    "generator_resource",
    "generator_thermal",
    "initial_alarm",
    "initial_value",
    "optimization_direction",
    "spatial",
    "topology_code"
  ],
  "probability_head": [
    [
      0.30339136719703674,
      -0.4109557569026947,
      -0.12221932411193848,
      0.38498106598854065,
      0.282930850982666,
      -0.13992378115653992,
      -0.4199537932872772,
      -0.290709912776947,
      -0.48321008682250977,
      0.10028094053268433,
      -0.4596966803073883,
      -0.0513104610145092
    ],
    [
      0.22894202172756195,
      -0.09982701390981674,
      -0.29645854234695435,
      0.26217105984687805,
      0.3114527463912964,
      -0.2724548280239105,
      -0.01856841892004013,
      -0.30131155252456665,
      -0.2826460003852844,
      0.42072194814682007,
      -0.40325143933296204,
      -0.2577369809150696
    ],
    [
      0.3380739986896515,
      0.06369099020957947,
      -0.23433199524879456,
      0.3583024740219116,
      -0.022832579910755157,
      -0.3591834008693695,
      -0.33089277148246765,
      -0.3550311028957367,
      -0.11406374722719193,
      0.12306226044893265,
      -0.41511812806129456,
      0.10280162841081619
    ],
    [
      -0.1700553148984909,
      0.2223673164844513,
      0.39614027738571167,
      -0.42604687809944153,
      -0.41843026876449585,
      -0.13910900056362152,
      0.24088901281356812,
      -0.157549187541008,
      0.4242537319660187,
      -0.33411434292793274,
      -0.5033690929412842,
      -0.37939658761024475
    ],
    [
      -0.16086074709892273,
      0.25178802013397217,
      -0.10806826502084732,
      -0.03061487339437008,
      -0.22476793825626373,
      -0.2397913932800293,
      -0.018407728523015976,
      0.23873504996299744,
      0.18154393136501312,
      0.23301434516906738,
      0.02883659489452839,
      -0.0577278696000576
    ],
    [
      -0.1235194057226181,
      0.43092745542526245,
      0.17773760855197906,
      -0.06758718192577362,
      -0.4671262502670288,
      -0.4143424928188324,
      0.145951509475708,
      0.1022411361336708,
      0.1764451265335083,
      -0.3609575629234314,
      -0.135809063911438,
      -0.4670434594154358
    ],
    [
      -0.04345587268471718,
      0.618018388748169,
      0.20676790177822113,
      -0.14302967488765717,
      -0.04399781674146652,
      -0.13890106976032257,
      0.13326354324817657,
      -0.1541593074798584,
      0.0645625963807106,
      -0.20761971175670624,
      -0.0022065460216253996,
      -0.5580786466598511
    ],
    [
      -0.006368619855493307,
      -0.08660975098609924,
      0.2505755126476288,
      0.06830134242773056,
      -0.2652350664138794,
      -0.08956624567508698,
      0.1779610812664032,
      -0.15091858804225922,
      0.1974867731332779,
      0.1480037271976471,
      0.2627318501472473,
      0.2107507884502411
    ],
    [
      0.08280301094055176,
      -0.21351131796836853,
      0.003919053822755814,
      0.027229495346546173,
      -0.1391448825597763,
      -0.0004633217176888138,
      0.07303798198699951,
      -0.27530449628829956,
      0.21857711672782898,
      -0.14472515881061554,
      -0.17050905525684357,
      -0.07721744477748871
    ],
    [
      -0.08221215009689331,
      0.12907984852790833,
      0.11897121369838715,
      -0.20017558336257935,
      -0.09787269681692123,
      0.0620097815990448,
      0.267540842294693,
      0.2054588347673416,
      -0.253889262676239,
      -0.03000972606241703,
      0.023206232115626335,
      -0.01446420419961214
    ],
    [
      -0.27272456884384155,
      -0.19287027418613434,
      0.015689224004745483,
      -0.12861499190330505,
      -0.0764896497130394,
      -0.20052407681941986,
      0.11125915497541428,
      0.13125170767307281,
      -0.22668880224227905,
      -0.24756984412670135,
      0.016169453039765358,
      -0.07224184274673462
    ]
  ],
  "temperature": 1.0,
  "training_evidence": {
    "calibration_ece": 0.15451364108400104,
    "calibration_split": "validation",
    "classification": "counterfactual_paired",
    "dataset_classification": "runtime_paired_family_ablation_v1",
    "epochs": 80,
    "families": [
      "DIA_ADV",
      "FAL_GUARD",
      "HEUR",
      "IND",
      "OPT",
      "PLAN"
    ],
    "final_loss": 0.24140231311321259,
    "generators": 3,
    "heldout_evaluated": true,
    "initial_loss": 0.7012166976928711,
    "promotion_eligible": false,
    "seed": 31,
    "split_metrics": {
      "test": {
        "calibration_ece": 0.1820548541067789,
        "evaluated": true,
        "positive_accuracy": 0.949999988079071,
        "positive_bce": 0.26214534044265747,
        "records": 60,
        "utility_rmse": 0.019395627081394196
      },
      "train": {
        "calibration_ece": 0.09904643260597368,
        "evaluated": true,
        "positive_accuracy": 0.925000011920929,
        "positive_bce": 0.23683594167232513,
        "records": 240,
        "utility_rmse": 0.023018211126327515
      },
      "validation": {
        "calibration_ece": 0.15451364108400104,
        "evaluated": true,
        "positive_accuracy": 0.800000011920929,
        "positive_bce": 0.3751678168773651,
        "records": 60,
        "utility_rmse": 0.033566009253263474
      }
    },
    "unique_contexts": 60,
    "valid_pairs": 360
  },
  "utility_head": [
    [
      -0.09891638904809952,
      0.08894602954387665,
      0.045868583023548126,
      0.24825914204120636,
      0.33248063921928406,
      -0.2350996881723404,
      0.15077999234199524,
      0.08916313946247101,
      0.07956510037183762,
      0.36566635966300964,
      -0.2420237958431244,
      0.11488813161849976
    ],
    [
      -0.08029329031705856,
      0.10056773573160172,
      0.025027168914675713,
      -0.012728876434266567,
      -0.15463104844093323,
      0.1645352989435196,
      0.0005317996838130057,
      0.058753080666065216,
      -0.21542491018772125,
      0.2582758367061615,
      0.026965802535414696,
      -0.055425554513931274
    ],
    [
      -0.21453623473644257,
      0.04939844831824303,
      -0.1104322224855423,
      -0.25820258259773254,
      0.04908426105976105,
      0.16519379615783691,
      0.07340116798877716,
      0.0005187386414036155,
      -0.009692959487438202,
      -0.17080146074295044,
      -0.20189498364925385,
      0.057426370680332184
    ],
    [
      0.23882493376731873,
      0.15357500314712524,
      0.06911768764257431,
      -0.05126706138253212,
      0.16230063140392303,
      -0.09004958719015121,
      -0.04348570480942726,
      -0.003950415179133415,
      -0.05957915261387825,
      -0.1542053073644638,
      0.06562061607837677,
      0.015290453098714352
    ],
    [
      -0.036882322281599045,
      -0.25607192516326904,
      0.21601639688014984,
      0.21466270089149475,
      0.18761423230171204,
      -0.20290066301822662,
      0.28671932220458984,
      0.09284619241952896,
      0.06536389887332916,
      0.13170292973518372,
      0.09849745780229568,
      -0.19629234075546265
    ],
    [
      0.04720892384648323,
      0.018664641305804253,
      0.08538122475147247,
      0.12700258195400238,
      -0.0081107746809721,
      -0.010669254697859287,
      -0.19479787349700928,
      0.20572374761104584,
      0.16266536712646484,
      0.11209229379892349,
      -0.3103289306163788,
      0.22071313858032227
    ],
    [
      -0.09510783106088638,
      -0.06393303722143173,
      -0.03603612259030342,
      -0.2561870217323303,
      -0.11578378826379776,
      -0.015573262237012386,
      0.061401478946208954,
      0.06693032383918762,
      -0.03409922495484352,
      0.17664681375026703,
      -0.06193321570754051,
      0.03554995357990265
    ],
    [
      -0.12203735113143921,
      -0.03657539188861847,
      0.16407087445259094,
      -0.007077829446643591,
      -0.1595313549041748,
      -0.1277548223733902,
      0.2085123062133789,
      0.11642597615718842,
      0.2605886161327362,
      0.19221442937850952,
      -0.008267819881439209,
      0.24274283647537231
    ],
    [
      0.21021254360675812,
      0.11297152191400528,
      -0.2345091700553894,
      -0.042775608599185944,
      0.04111309349536896,
      0.1057901382446289,
      -0.2782802879810333,
      0.1491868793964386,
      0.1330534815788269,
      -0.11960279196500778,
      -0.06358341872692108,
      -0.08375672996044159
    ],
    [
      -0.03822820261120796,
      -0.10767299681901932,
      0.012723131105303764,
      0.26754531264305115,
      -0.2077740579843521,
      0.1493654102087021,
      -0.19894304871559143,
      0.09270314127206802,
      0.13983593881130219,
      0.22319269180297852,
      0.019987067207694054,
      -0.20727038383483887
    ],
    [
      0.015960464254021645,
      0.06365018337965012,
      -0.22825437784194946,
      0.25650981068611145,
      0.21984229981899261,
      -0.2752324938774109,
      0.23918813467025757,
      -0.057895977050065994,
      -0.1674991101026535,
      -0.20281335711479187,
      -0.06176304072141647,
      -0.22049365937709808
    ]
  ],
  "w1": [
    [
      -0.3804936408996582,
      -0.2536481022834778,
      -0.352167546749115,
      -0.21562345325946808,
      -0.251882940530777,
      -0.22808676958084106,
      -0.12844538688659668,
      -0.2063474804162979,
      -0.3322261869907379,
      -0.15894807875156403,
      -0.3381059765815735,
      -0.11912430822849274
    ],
    [
      0.04249066114425659,
      -0.19056715071201324,
      0.011746358126401901,
      0.10596261918544769,
      0.07024829089641571,
      -0.24975109100341797,
      -0.2179950326681137,
      0.1911572515964508,
      0.302501380443573,
      -0.023326311260461807,
      0.4209795892238617,
      0.3549586832523346
    ],
    [
      0.08985188603401184,
      0.3646455407142639,
      0.516579806804657,
      0.5105751156806946,
      -0.18970364332199097,
      0.5043087601661682,
      0.4367660880088806,
      0.05312689021229744,
      0.19444003701210022,
      0.45480024814605713,
      -0.32483261823654175,
      -0.16702629625797272
    ],
    [
      0.060644134879112244,
      0.4765189290046692,
      0.25709718465805054,
      0.030032910406589508,
      0.2028149962425232,
      0.3974330723285675,
      0.19237926602363586,
      0.21412613987922668,
      0.09386252611875534,
      -0.18332651257514954,
      0.23393717408180237,
      0.5235304832458496
    ],
    [
      -0.07333334535360336,
      -0.32715094089508057,
      0.09643014520406723,
      -0.28475236892700195,
      -0.23222455382347107,
      -0.19718506932258606,
      -0.1428219974040985,
      -0.39626285433769226,
      -0.3328589200973511,
      -0.24679085612297058,
      -0.2706325054168701,
      -0.1344453990459442
    ],
    [
      -0.08946140110492706,
      -0.23377393186092377,
      -0.3625986576080322,
      -0.04499026760458946,
      -0.3768341541290283,
      -0.31928551197052,
      -0.01496120635420084,
      0.11420861631631851,
      0.032950423657894135,
      0.04546164721250534,
      0.07290694862604141,
      -0.09113022685050964
    ],
    [
      0.013685463927686214,
      0.08776433020830154,
      0.06319345533847809,
      -0.26480719447135925,
      -0.4102444648742676,
      -0.30126550793647766,
      0.0038482784293591976,
      -0.2156469225883484,
      -0.0147987836971879,
      0.1263657659292221,
      -0.3578939139842987,
      -0.0452764593064785
    ],
    [
      0.5337674617767334,
      0.05533851683139801,
      -0.06672732532024384,
      0.287090539932251,
      0.07038892060518265,
      0.4861709475517273,
      -0.10522714257240295,
      0.5942164063453674,
      0.24636799097061157,
      -0.30762335658073425,
      0.5148604512214661,
      0.13922199606895447
    ],
    [
      0.08039184659719467,
      0.4335799515247345,
      0.33193081617355347,
      0.4745853543281555,
      0.41669920086860657,
      0.3626755475997925,
      0.07524672895669937,
      0.19357353448867798,
      0.4744233787059784,
      0.07718479633331299,
      0.18135736882686615,
      0.16657161712646484
    ],
    [
      0.02211807854473591,
      -0.18753139674663544,
      -0.3413960933685303,
      -0.3016839623451233,
      -0.031246181577444077,
      -0.372411847114563,
      0.004381287842988968,
      -0.31668660044670105,
      -0.13475079834461212,
      0.12999291718006134,
      -0.10345333069562912,
      0.08426786959171295
    ],
    [
      -0.494417667388916,
      -0.31497734785079956,
      -0.5370252132415771,
      -0.08640466630458832,
      -0.31960004568099976,
      -0.3401360809803009,
      0.023233048617839813,
      -0.14648091793060303,
      -0.08584438264369965,
      0.14445458352565765,
      -0.04439022019505501,
      -0.3014063835144043
    ],
    [
      0.28426259756088257,
      0.39355823397636414,
      -0.007577151525765657,
      0.06382747739553452,
      0.08066480606794357,
      -0.03597402572631836,
      0.4043736457824707,
      0.125555157661438,
      0.40673336386680603,
      -0.2555866241455078,
      -0.19241569936275482,
      0.2396208792924881
    ],
    [
      0.34367796778678894,
      0.3808820843696594,
      0.17567890882492065,
      0.001160263898782432,
      0.09564472734928131,
      0.48206520080566406,
      0.5090968608856201,
      -0.4311752915382385,
      0.26569756865501404,
      0.24600127339363098,
      0.17900101840496063,
      -0.06700248271226883
    ],
    [
      0.2379469871520996,
      0.11299559473991394,
      0.3791886270046234,
      0.43363723158836365,
      0.07562500238418579,
      0.05080152302980423,
      -0.0021751997992396355,
      0.316411554813385,
      0.16679176688194275,
      -0.40720731019973755,
      0.22241051495075226,
      0.21688657999038696
    ],
    [
      0.4885978102684021,
      0.4271576702594757,
      0.5018275380134583,
      0.21468636393547058,
      0.2492937594652176,
      0.2273540049791336,
      0.4357103407382965,
      -0.09088315069675446,
      0.3129895329475403,
      -0.3432500958442688,
      0.12403177469968796,
      -0.15218676626682281
    ],
    [
      0.03908047825098038,
      0.11599528789520264,
      0.4025108516216278,
      0.49432072043418884,
      0.5499765872955322,
      0.45700448751449585,
      -0.005283600650727749,
      0.5271331071853638,
      0.05643881484866142,
      -0.49406224489212036,
      0.16695696115493774,
      0.024698128923773766
    ]
  ],
  "w2": [
    [
      -0.022963542491197586,
      0.1287774294614792,
      -0.2745426297187805,
      -0.398167222738266,
      0.07480427622795105,
      0.000359423371264711,
      0.09720844775438309,
      -0.011183205060660839,
      -0.29437345266342163,
      0.3703101873397827,
      0.26321491599082947,
      0.04468143358826637,
      -0.029179777950048447,
      -0.3184143304824829,
      -0.2106037139892578,
      -0.1836574226617813
    ],
    [
      -0.2704119384288788,
      -0.27816498279571533,
      0.30374258756637573,
      0.06428524851799011,
      -0.13742147386074066,
      -0.07906989753246307,
      0.10039640218019485,
      -0.5246754884719849,
      0.2723941206932068,
      -0.4170340299606323,
      -0.27315962314605713,
      0.2517516613006592,
      0.3059735596179962,
      -0.1284506916999817,
      0.1666214019060135,
      -0.08516434580087662
    ],
    [
      -0.19105252623558044,
      -0.30555960536003113,
      0.520393431186676,
      0.06123870611190796,
      -0.3964851200580597,
      -0.47776153683662415,
      -0.1789638251066208,
      0.07785110920667648,
      0.04477136209607124,
      -0.3721747100353241,
      -0.3735369145870209,
      0.27444854378700256,
      0.5293652415275574,
      0.25547757744789124,
      0.04584382474422455,
      -0.037370674312114716
    ],
    [
      0.2667662799358368,
      0.17883194983005524,
      -0.39893245697021484,
      -0.22617840766906738,
      0.27783703804016113,
      0.376221626996994,
      0.2805800437927246,
      -0.3497205972671509,
      -0.19526000320911407,
      0.30138134956359863,
      0.048274002969264984,
      -0.25713497400283813,
      0.04296327382326126,
      0.12877021729946136,
      -0.16192269325256348,
      -0.33005237579345703
    ],
    [
      -0.12199517339468002,
      0.06270170211791992,
      -0.35426050424575806,
      0.07458213716745377,
      0.10438387095928192,
      0.2584037482738495,
      -0.43012386560440063,
      0.3186560273170471,
      0.01963314414024353,
      0.21573299169540405,
      -0.03535638004541397,
      0.23197411000728607,
      -0.2740783989429474,
      0.18689464032649994,
      -0.30148541927337646,
      0.437188059091568
    ],
    [
      -0.35287851095199585,
      0.06577523797750473,
      0.18545588850975037,
      0.23046670854091644,
      -0.43825531005859375,
      -0.19179682433605194,
      -0.3163716197013855,
      0.24287883937358856,
      0.06826090812683105,
      -0.4556393325328827,
      -0.3160213828086853,
      0.19745256006717682,
      -0.012739630416035652,
      0.23510095477104187,
      0.0839131623506546,
      0.4048810303211212
    ],
    [
      -0.3561626076698303,
      -0.29645299911499023,
      0.3867481052875519,
      0.3231274485588074,
      -0.3101564645767212,
      -0.23452416062355042,
      0.06694357097148895,
      0.08763465285301208,
      0.5123743414878845,
      -0.12796370685100555,
      -0.32256215810775757,
      0.08083495497703552,
      0.4448230266571045,
      0.25199171900749207,
      0.2890569269657135,
      0.22311066091060638
    ],
    [
      -0.26534387469291687,
      0.07668481022119522,
      0.23641830682754517,
      0.43144968152046204,
      -0.05150908976793289,
      -0.27441391348838806,
      -0.442336767911911,
      0.44325223565101624,
      0.3636251389980316,
      -0.4621430039405823,
      -0.11529814451932907,
      0.06640979647636414,
      0.47771769762039185,
      0.11296938359737396,
      0.47639763355255127,
      0.5054283142089844
    ],
    [
      -0.5002791285514832,
      -0.09851861000061035,
      0.4910895824432373,
      0.07012630999088287,
      -0.18176206946372986,
      -0.3452489674091339,
      -0.22101683914661407,
      0.4321823716163635,
      0.15002743899822235,
      -0.18018664419651031,
      -0.1791164129972458,
      0.31264832615852356,
      0.5549241900444031,
      0.1267135888338089,
      0.33675819635391235,
      -0.02757730893790722
    ],
    [
      0.20512105524539948,
      0.18885070085525513,
      -0.06379684805870056,
      -0.09929049015045166,
      0.011550559662282467,
      0.3205453157424927,
      0.2227838933467865,
      -0.16527223587036133,
      -0.17893056571483612,
      0.10905572026968002,
      -0.14174610376358032,
      -0.1281604766845703,
      -0.37415459752082825,
      -0.36237385869026184,
      -0.07520779222249985,
      -0.033186011016368866
    ],
    [
      -0.4288294315338135,
      0.1381589025259018,
      0.11479189246892929,
      0.48127567768096924,
      -0.45066091418266296,
      -0.27669915556907654,
      -0.18856242299079895,
      0.4444200396537781,
      0.18867787718772888,
      -0.45672449469566345,
      -0.3512597978115082,
      0.15571410953998566,
      0.2818354666233063,
      0.327536940574646,
      0.11856763064861298,
      0.45698362588882446
    ],
    [
      -0.0032045755069702864,
      0.0770837739109993,
      -0.32547527551651,
      0.2791139781475067,
      -0.3442196547985077,
      0.15865954756736755,
      -0.4019632339477539,
      0.37360531091690063,
      0.28519949316978455,
      0.25926604866981506,
      -0.35599756240844727,
      0.07768338173627853,
      -0.2533641457557678,
      0.16109420359134674,
      0.025295095518231392,
      0.20487262308597565
    ]
  ]
}
